digraph Tree {
node [shape=box, fontname="helvetica"] ;
edge [fontname="helvetica"] ;
0 [label="data_type_2_m3 <= 905.294\ngini = 0.14\nsamples = 16000\nvalue = [14792, 1208]"] ;
1 [label="voice_all_out_dur_m1 <= 21117.429\ngini = 0.114\nsamples = 9979\nvalue = [9375, 604]"] ;
0 -> 1 [labeldistance=2.5, labelangle=45, headlabel="True"] ;
2 [label="data_type_1_m2 <= 253.139\ngini = 0.128\nsamples = 6802\nvalue = [6334, 468]"] ;
1 -> 2 ;
3 [label="content_count_m1 <= 102.5\ngini = 0.113\nsamples = 4693\nvalue = [4411, 282]"] ;
2 -> 3 ;
4 [label="gini = 0.103\nsamples = 4541\nvalue = [4294, 247]"] ;
3 -> 4 ;
5 [label="gini = 0.354\nsamples = 152\nvalue = [117, 35]"] ;
3 -> 5 ;
6 [label="lt <= 0.716\ngini = 0.161\nsamples = 2109\nvalue = [1923, 186]"] ;
2 -> 6 ;
7 [label="gini = 0.281\nsamples = 699\nvalue = [581, 118]"] ;
6 -> 7 ;
8 [label="gini = 0.092\nsamples = 1410\nvalue = [1342, 68]"] ;
6 -> 8 ;
9 [label="count_url_category_2 <= 974.0\ngini = 0.082\nsamples = 3177\nvalue = [3041, 136]"] ;
1 -> 9 ;
10 [label="vol_app_5 <= 1520043456.0\ngini = 0.079\nsamples = 3135\nvalue = [3006, 129]"] ;
9 -> 10 ;
11 [label="gini = 0.074\nsamples = 3008\nvalue = [2892, 116]"] ;
10 -> 11 ;
12 [label="gini = 0.184\nsamples = 127\nvalue = [114, 13]"] ;
10 -> 12 ;
13 [label="lt <= 0.879\ngini = 0.278\nsamples = 42\nvalue = [35, 7]"] ;
9 -> 13 ;
14 [label="gini = 0.397\nsamples = 22\nvalue = [16, 6]"] ;
13 -> 14 ;
15 [label="gini = 0.095\nsamples = 20\nvalue = [19, 1]"] ;
13 -> 15 ;
16 [label="content_count_m2 <= 91.5\ngini = 0.181\nsamples = 6021\nvalue = [5417, 604]"] ;
0 -> 16 [labeldistance=2.5, labelangle=-45, headlabel="False"] ;
17 [label="voice_onnet_out_day_work_dur_m3 <= 13530.0\ngini = 0.162\nsamples = 5055\nvalue = [4605, 450]"] ;
16 -> 17 ;
18 [label="block_count_m2 <= 1.271\ngini = 0.19\nsamples = 3478\nvalue = [3109, 369]"] ;
17 -> 18 ;
19 [label="gini = 0.171\nsamples = 3016\nvalue = [2732, 284]"] ;
18 -> 19 ;
20 [label="gini = 0.3\nsamples = 462\nvalue = [377, 85]"] ;
18 -> 20 ;
21 [label="balance_sum <= 0.017\ngini = 0.097\nsamples = 1577\nvalue = [1496, 81]"] ;
17 -> 21 ;
22 [label="gini = 0.423\nsamples = 23\nvalue = [16, 7]"] ;
21 -> 22 ;
23 [label="gini = 0.091\nsamples = 1554\nvalue = [1480, 74]"] ;
21 -> 23 ;
24 [label="voice_in_uniq_count_m2 <= 15.5\ngini = 0.268\nsamples = 966\nvalue = [812, 154]"] ;
16 -> 24 ;
25 [label="vol_app_7 <= 208113232.0\ngini = 0.5\nsamples = 59\nvalue = [29, 30]"] ;
24 -> 25 ;
26 [label="gini = 0.417\nsamples = 27\nvalue = [8, 19]"] ;
25 -> 26 ;
27 [label="gini = 0.451\nsamples = 32\nvalue = [21, 11]"] ;
25 -> 27 ;
28 [label="voice_onnet_out_night_work_cost_m1 <= 0.706\ngini = 0.236\nsamples = 907\nvalue = [783, 124]"] ;
24 -> 28 ;
29 [label="gini = 0.205\nsamples = 768\nvalue = [679, 89]"] ;
28 -> 29 ;
30 [label="gini = 0.377\nsamples = 139\nvalue = [104, 35]"] ;
28 -> 30 ;
}