digraph Tree {
node [shape=box, fontname="helvetica"] ;
edge [fontname="helvetica"] ;
0 [label="voice_omo_out_night_rest_dur_m3 <= 635.143\ngini = 0.141\nsamples = 15000\nvalue = [13855, 1145]"] ;
1 [label="content_cost_m3 <= 1.032\ngini = 0.132\nsamples = 13898\nvalue = [12907, 991]"] ;
0 -> 1 [labeldistance=2.5, labelangle=45, headlabel="True"] ;
2 [label="lt <= 0.715\ngini = 0.116\nsamples = 11942\nvalue = [11205, 737]"] ;
1 -> 2 ;
3 [label="all_cost_m2 <= 175.057\ngini = 0.25\nsamples = 2708\nvalue = [2311, 397]"] ;
2 -> 3 ;
4 [label="voice_all_in_count_m1 <= 6.5\ngini = 0.243\nsamples = 2656\nvalue = [2280, 376]"] ;
3 -> 4 ;
5 [label="vol_app_2 <= 3631790.5\ngini = 0.159\nsamples = 828\nvalue = [756, 72]"] ;
4 -> 5 ;
6 [label="gini = 0.143\nsamples = 775\nvalue = [715, 60]"] ;
5 -> 6 ;
7 [label="gini = 0.35\nsamples = 53\nvalue = [41, 12]"] ;
5 -> 7 ;
8 [label="paym_count_m3 <= 0.5\ngini = 0.277\nsamples = 1828\nvalue = [1524, 304]"] ;
4 -> 8 ;
9 [label="gini = 0.332\nsamples = 739\nvalue = [584, 155]"] ;
8 -> 9 ;
10 [label="gini = 0.236\nsamples = 1089\nvalue = [940, 149]"] ;
8 -> 10 ;
11 [label="sms_cost_m1 <= 7.528\ngini = 0.482\nsamples = 52\nvalue = [31, 21]"] ;
3 -> 11 ;
12 [label="id <= 48103157760.0\ngini = 0.498\nsamples = 45\nvalue = [24, 21]"] ;
11 -> 12 ;
13 [label="gini = 0.478\nsamples = 38\nvalue = [23, 15]"] ;
12 -> 13 ;
14 [label="gini = 0.245\nsamples = 7\nvalue = [1, 6]"] ;
12 -> 14 ;
15 [label="gini = 0.0\nsamples = 7\nvalue = [7, 0]"] ;
11 -> 15 ;
16 [label="data_type_1_m1 <= 414.71\ngini = 0.071\nsamples = 9234\nvalue = [8894, 340]"] ;
2 -> 16 ;
17 [label="sms_roam_out_count_m3 <= 3.5\ngini = 0.06\nsamples = 6450\nvalue = [6250, 200]"] ;
16 -> 17 ;
18 [label="count_gift_type_3 <= 5.5\ngini = 0.06\nsamples = 6444\nvalue = [6246, 198]"] ;
17 -> 18 ;
19 [label="gini = 0.057\nsamples = 6392\nvalue = [6204, 188]"] ;
18 -> 19 ;
20 [label="gini = 0.311\nsamples = 52\nvalue = [42, 10]"] ;
18 -> 20 ;
21 [label="gini = 0.444\nsamples = 6\nvalue = [4, 2]"] ;
17 -> 21 ;
22 [label="voice_onnet_in_day_work_dur_m1 <= 20368.0\ngini = 0.096\nsamples = 2784\nvalue = [2644, 140]"] ;
16 -> 22 ;
23 [label="voice_onnet_in_night_work_dur_m2 <= 574.5\ngini = 0.107\nsamples = 2291\nvalue = [2161, 130]"] ;
22 -> 23 ;
24 [label="gini = 0.071\nsamples = 871\nvalue = [839, 32]"] ;
23 -> 24 ;
25 [label="gini = 0.129\nsamples = 1420\nvalue = [1322, 98]"] ;
23 -> 25 ;
26 [label="all_count_m1 <= 5582.0\ngini = 0.04\nsamples = 493\nvalue = [483, 10]"] ;
22 -> 26 ;
27 [label="gini = 0.033\nsamples = 483\nvalue = [475, 8]"] ;
26 -> 27 ;
28 [label="gini = 0.32\nsamples = 10\nvalue = [8, 2]"] ;
26 -> 28 ;
29 [label="paym_count_m1 <= 2.514\ngini = 0.226\nsamples = 1956\nvalue = [1702, 254]"] ;
1 -> 29 ;
30 [label="voice_onnet_in_dur_m2 <= 11859.5\ngini = 0.191\nsamples = 1533\nvalue = [1369, 164]"] ;
29 -> 30 ;
31 [label="short_out_calls_part_m3 <= 0.088\ngini = 0.247\nsamples = 740\nvalue = [633, 107]"] ;
30 -> 31 ;
32 [label="content_cost_m1 <= 47.839\ngini = 0.2\nsamples = 523\nvalue = [464, 59]"] ;
31 -> 32 ;
33 [label="gini = 0.189\nsamples = 511\nvalue = [457, 54]"] ;
32 -> 33 ;
34 [label="gini = 0.486\nsamples = 12\nvalue = [7, 5]"] ;
32 -> 34 ;
35 [label="voice_out_uniq_count_m2 <= 21.5\ngini = 0.345\nsamples = 217\nvalue = [169, 48]"] ;
31 -> 35 ;
36 [label="gini = 0.41\nsamples = 118\nvalue = [84, 34]"] ;
35 -> 36 ;
37 [label="gini = 0.243\nsamples = 99\nvalue = [85, 14]"] ;
35 -> 37 ;
38 [label="income_brnd_cont_m1 <= 6.667\ngini = 0.133\nsamples = 793\nvalue = [736, 57]"] ;
30 -> 38 ;
39 [label="id <= 4876027648.0\ngini = 0.092\nsamples = 518\nvalue = [493, 25]"] ;
38 -> 39 ;
40 [label="gini = 0.018\nsamples = 226\nvalue = [224, 2]"] ;
39 -> 40 ;
41 [label="gini = 0.145\nsamples = 292\nvalue = [269, 23]"] ;
39 -> 41 ;
42 [label="data_type_1_m1 <= 14.382\ngini = 0.206\nsamples = 275\nvalue = [243, 32]"] ;
38 -> 42 ;
43 [label="gini = 0.5\nsamples = 8\nvalue = [4, 4]"] ;
42 -> 43 ;
44 [label="gini = 0.188\nsamples = 267\nvalue = [239, 28]"] ;
42 -> 44 ;
45 [label="content_count_m1 <= 142.5\ngini = 0.335\nsamples = 423\nvalue = [333, 90]"] ;
29 -> 45 ;
46 [label="service_P_flag_m1 <= 0.471\ngini = 0.242\nsamples = 306\nvalue = [263, 43]"] ;
45 -> 46 ;
47 [label="act_days_count_m2 <= 18.5\ngini = 0.408\nsamples = 49\nvalue = [35, 14]"] ;
46 -> 47 ;
48 [label="gini = 0.375\nsamples = 8\nvalue = [2, 6]"] ;
47 -> 48 ;
49 [label="gini = 0.314\nsamples = 41\nvalue = [33, 8]"] ;
47 -> 49 ;
50 [label="count_gift_type_2 <= 1.157\ngini = 0.2\nsamples = 257\nvalue = [228, 29]"] ;
46 -> 50 ;
51 [label="gini = 0.153\nsamples = 215\nvalue = [197, 18]"] ;
50 -> 51 ;
52 [label="gini = 0.387\nsamples = 42\nvalue = [31, 11]"] ;
50 -> 52 ;
53 [label="voice_onnet_out_night_rest_dur_m2 <= 330.0\ngini = 0.481\nsamples = 117\nvalue = [70, 47]"] ;
45 -> 53 ;
54 [label="conn_com_cost_m3 <= 0.41\ngini = 0.48\nsamples = 35\nvalue = [14, 21]"] ;
53 -> 54 ;
55 [label="gini = 0.165\nsamples = 11\nvalue = [1, 10]"] ;
54 -> 55 ;
56 [label="gini = 0.497\nsamples = 24\nvalue = [13, 11]"] ;
54 -> 56 ;
57 [label="voice_omo_in_day_rest_count_m3 <= 1.5\ngini = 0.433\nsamples = 82\nvalue = [56, 26]"] ;
53 -> 57 ;
58 [label="gini = 0.266\nsamples = 38\nvalue = [32, 6]"] ;
57 -> 58 ;
59 [label="gini = 0.496\nsamples = 44\nvalue = [24, 20]"] ;
57 -> 59 ;
60 [label="content_cost_m3 <= 0.146\ngini = 0.24\nsamples = 1102\nvalue = [948, 154]"] ;
0 -> 60 [labeldistance=2.5, labelangle=-45, headlabel="False"] ;
61 [label="count_act_type_4 <= 3.271\ngini = 0.146\nsamples = 541\nvalue = [498, 43]"] ;
60 -> 61 ;
62 [label="voice_omo_in_count_m2 <= 234.0\ngini = 0.186\nsamples = 385\nvalue = [345, 40]"] ;
61 -> 62 ;
63 [label="all_cost_m1 <= 61.284\ngini = 0.176\nsamples = 379\nvalue = [342, 37]"] ;
62 -> 63 ;
64 [label="count_app_1 <= 3289.5\ngini = 0.236\nsamples = 219\nvalue = [189, 30]"] ;
63 -> 64 ;
65 [label="gini = 0.171\nsamples = 159\nvalue = [144, 15]"] ;
64 -> 65 ;
66 [label="gini = 0.375\nsamples = 60\nvalue = [45, 15]"] ;
64 -> 66 ;
67 [label="voice_all_in_dur_m3 <= 66851.5\ngini = 0.084\nsamples = 160\nvalue = [153, 7]"] ;
63 -> 67 ;
68 [label="gini = 0.063\nsamples = 154\nvalue = [149, 5]"] ;
67 -> 68 ;
69 [label="gini = 0.444\nsamples = 6\nvalue = [4, 2]"] ;
67 -> 69 ;
70 [label="gini = 0.5\nsamples = 6\nvalue = [3, 3]"] ;
62 -> 70 ;
71 [label="sms_in_count_m3 <= 112.5\ngini = 0.038\nsamples = 156\nvalue = [153, 3]"] ;
61 -> 71 ;
72 [label="manufacturer_category <= 70.5\ngini = 0.014\nsamples = 139\nvalue = [138, 1]"] ;
71 -> 72 ;
73 [label="voice_onnet_out_day_rest_count_m2 <= 3.5\ngini = 0.067\nsamples = 29\nvalue = [28, 1]"] ;
72 -> 73 ;
74 [label="gini = 0.278\nsamples = 6\nvalue = [5, 1]"] ;
73 -> 74 ;
75 [label="gini = 0.0\nsamples = 23\nvalue = [23, 0]"] ;
73 -> 75 ;
76 [label="gini = 0.0\nsamples = 110\nvalue = [110, 0]"] ;
72 -> 76 ;
77 [label="gini = 0.208\nsamples = 17\nvalue = [15, 2]"] ;
71 -> 77 ;
78 [label="block_count_m2 <= 1.271\ngini = 0.317\nsamples = 561\nvalue = [450, 111]"] ;
60 -> 78 ;
79 [label="data_type_1_m2 <= 5766.341\ngini = 0.255\nsamples = 294\nvalue = [250, 44]"] ;
78 -> 79 ;
80 [label="voice_onnet_out_day_work_dur_m2 <= 39060.0\ngini = 0.222\nsamples = 275\nvalue = [240, 35]"] ;
79 -> 80 ;
81 [label="count_url_category_8 <= 14.543\ngini = 0.206\nsamples = 266\nvalue = [235, 31]"] ;
80 -> 81 ;
82 [label="gini = 0.384\nsamples = 54\nvalue = [40, 14]"] ;
81 -> 82 ;
83 [label="gini = 0.148\nsamples = 212\nvalue = [195, 17]"] ;
81 -> 83 ;
84 [label="gini = 0.494\nsamples = 9\nvalue = [5, 4]"] ;
80 -> 84 ;
85 [label="gini = 0.499\nsamples = 19\nvalue = [10, 9]"] ;
79 -> 85 ;
86 [label="vol_app_5 <= 784293472.0\ngini = 0.376\nsamples = 267\nvalue = [200, 67]"] ;
78 -> 86 ;
87 [label="content_count_m2 <= 66.714\ngini = 0.287\nsamples = 190\nvalue = [157, 33]"] ;
86 -> 87 ;
88 [label="pay_out_P2P_cost_m3 <= -16.643\ngini = 0.248\nsamples = 179\nvalue = [153, 26]"] ;
87 -> 88 ;
89 [label="gini = 0.153\nsamples = 12\nvalue = [1, 11]"] ;
88 -> 89 ;
90 [label="gini = 0.164\nsamples = 167\nvalue = [152, 15]"] ;
88 -> 90 ;
91 [label="gini = 0.463\nsamples = 11\nvalue = [4, 7]"] ;
87 -> 91 ;
92 [label="voice_onnet_in_night_rest_dur_m3 <= 1607.386\ngini = 0.493\nsamples = 77\nvalue = [43, 34]"] ;
86 -> 92 ;
93 [label="block_count_m2 <= 1.529\ngini = 0.5\nsamples = 64\nvalue = [32, 32]"] ;
92 -> 93 ;
94 [label="gini = 0.485\nsamples = 46\nvalue = [19, 27]"] ;
93 -> 94 ;
95 [label="gini = 0.401\nsamples = 18\nvalue = [13, 5]"] ;
93 -> 95 ;
96 [label="gini = 0.26\nsamples = 13\nvalue = [11, 2]"] ;
92 -> 96 ;
}